{"config":{"identifier":"ImitationLearning","inputSize":3,"outputSize":2,"hiddenLayerSize":[10],"learningRate":0.01},"layers":[3,10,2],"neurons":[[0.5596427,0.3404655,0.7965456],[0.999525666,-0.8714201,0.98985523,0.999945641,-0.9998492,-0.9947546,-0.9795526,0.999736547,0.9449744,0.998308063],[0.8703984,0.9999988]],"biases":[[21.0993519,-33.8461151,2.007444,-5.732069,-2.131207,2.3047626,-14.6287832,2.26972914,12.1243172,-11.5246181],[-2.07960033,1.99929941]],"weights":[[[-8.239136,4.07392931,-17.202],[17.8068123,2.78585243,27.1085854],[-8.261868,5.16645956,4.38980341],[1.544652,0.8726566,12.3371191],[-1.73159933,-0.2527607,-1.95834732],[0.9511255,-0.758682549,-6.96659327],[22.99389,-16.680109,6.46922874],[1.32534158,-0.7011146,2.12742615],[-27.9903412,15.2609434,0.159501284],[-11.877,28.7311039,14.9729366]],[[-11.4901791,-1.24198854,0.144160271,7.473228,0.3203529,-6.405539,1.46058154,-0.198064014,1.57167912,0.293631226],[-0.519921362,-0.8435002,0.630251646,-0.348384559,-1.25464451,0.2415853,-0.820552647,1.9993,-0.8026574,1.61802435]]],"cost":0.492564648,"learningRate":0.01,"name":"ImitationLearning","hideFlags":0}