{"config":{"identifier":"PlayerSupervisedLearning","inputSize":6,"outputSize":2,"hiddenLayerSize":[10],"learningRate":0.01},"layers":[6,10,2],"neurons":[[0.7032051,0.4752016,0.377898365,0.724845,0.7933284,0.0],[0.492127329,-0.76364994,0.9384209,-0.9898381,-0.9999731,0.998768032,0.999626637,-1.0,-0.948306739,-0.1262656],[0.9983438,0.989758253]],"biases":[[-2.38693,-4.50067854,-7.9230814,-7.44447231,-4.46376467,-40.2063675,2.63042974,-7.191662,9.784108,-2.00345826],[-1.90536487,3.99888563]],"weights":[[[0.6921016,5.201375,-2.34037924,0.6315174,0.496737123,-0.46094],[-5.37917852,4.242773,8.077055,5.1157856,-1.88849783,0.0165117383],[7.70317173,1.59703588,-3.71057534,5.01605844,1.56084919,-0.440042138],[15.3685513,-5.69486761,6.579127,-26.5581665,16.97805,0.04169756],[-8.435806,-6.58681154,9.597864,-6.44530773,11.29726,0.394914269],[-31.1270885,-3.87186384,-7.898388,10.1771879,79.71321,-0.333628535],[1.80986142,1.17169535,-2.442709,0.6425279,0.366011918,0.301354647],[-4.40720224,6.21099234,-2.19065928,-12.753624,10.52144,0.0754377246],[-1.35819376,-0.426167727,7.292009,-13.6444674,-4.16815138,0.3582195],[9.226484,11.4809113,-11.4534016,1.48960567,-8.595248,0.07671994]],[[-6.379795,-3.44983,20.49749,-2.12896657,-7.5111227,0.227566779,-2.7339232,18.7172852,2.047603,-2.13427734],[-1.49271643,-1.48223913,0.5191677,-0.5613986,5.96394968,0.1733854,3.99888659,0.863938868,-0.0253386218,1.35667789]]],"cost":0.4990894,"learningRate":0.01,"name":"PlayerSupervisedLearning","hideFlags":0}