{
  "config": {
    "identifier": "PlayerDataSupervisedLearning",
    "inputSize": 5,
    "outputSize": 2,
    "hiddenLayerSize": [ 10 ],
    "learningRate": 0.01
  },
  "layers": [ 5, 10, 2 ],
  "neurons": [
    [ 0.80939126, 0.701654732, 0.03547149, 0.6724201, 0.742707431 ],
    [ 0.9986251, -0.9999999, 0.999313354, -0.999857, 0.9997461, -0.9999926, -0.812790334, 0.9999999, 0.9999933, 0.8132004 ],
    [ -0.50028795, 0.999958158 ]
  ],
  "biases": [
    [ 0.8802309, 3.3104558, -1.63603008, -28.2980137, -8.314582, 14.2334337, -33.1819267, 14.9709768, 1.14834309, 1.210797 ],
    [ 0.02157162, 7.70651627 ]
  ],
  "weights": [
    [
      [ 4.56520844, 4.331468, -1.10914576, 4.041566, -8.956197 ],
      [ -16.7398338, -2.37535548, 17.45667, -29.2651176, 30.4714241 ],
      [ 6.260611, -1.09024262, -8.790133, 2.24045348, 0.171307787 ],
      [ 26.1456566, 7.51894, 10.6812754, -13.0603285, 7.392459 ],
      [ 16.5370789, -22.76337, -8.097942, 0.207038984, 20.917347 ],
      [ -11.17683, 16.89808, -7.264649, -12.3918238, -19.8041821 ],
      [ -6.98793125, -6.390748, -4.103667, 3.82205081, 53.537014 ],
      [ 0.465027034, 0.489782065, -24.25147, 12.6396065, -20.1734142 ],
      [ 10.8198948, -5.44498968, -17.1703587, -9.154372, 9.404033 ],
      [ -8.475795, 7.334599, -0.7970522, 0.7766171, 1.54239357 ]
    ],
    [
      [ -9.839388, -1.56092477, 4.853515, -5.34171247, -6.048789, -5.611654, 0.3521393, -1.42972374, 1.30442154, -2.02937722 ],
      [ -3.69822741, -0.549079359, 5.33646536, -0.08581606, -3.41713285, 1.17650652, -1.39509165, -1.808287, 1.04466581, -0.456894219 ]
    ]
  ],
  "cost": 0.4935688,
  "learningRate": 0.01,
  "name": "PlSL2",
  "hideFlags": 0
}