{"config":{"identifier":"PlSL2","inputSize":5,"outputSize":2,"hiddenLayerSize":[10],"learningRate":0.01},"layers":[5,10,2],"neurons":[[0.657621264,0.9403677,0.964832842,0.958971262,0.8705551],[1.0,-1.0,-0.999961555,0.9420798,1.0,-0.9048831,1.0,0.999985,-0.5380277,-0.99999845],[-0.9996689,-0.999827266]],"biases":[[35.71459,-4.53570652,9.817178,-5.25729227,-7.45000648,2.69116282,10.01175,-33.9902878,-15.3617592,-22.5080471],[-6.40014124,8.548999]],"weights":[[[-61.060318,23.667284,22.3967037,0.6912159,-16.01432],[11.1516247,8.245119,5.63355,-15.0231962,-13.2736959],[10.63207,-22.3522835,9.983326,-19.60802,9.134627],[2.710712,0.6742494,-3.969874,7.89754534,0.9805214],[-26.69496,14.5590534,10.211977,-4.946883,37.6329651],[-7.154814,10.5063257,-5.42527,-1.51038706,-3.08016372],[-21.608429,9.806999,12.8219147,-5.392445,-0.53490895],[23.319,0.337429553,3.005061,17.3199577,5.43208075],[13.0214338,5.755819,-1.73747718,19.98403,-19.1867352],[28.9502678,-18.0380573,2.7534225,-5.39223242,18.2695026]],[[-3.12685132,-2.26361561,-2.02326465,15.534852,11.1742992,-0.9621661,4.495337,-7.30342865,14.3026438,15.2896709],[-4.55436039,0.104599468,-0.5788404,6.905196,0.159675017,10.2328491,-0.8537157,-4.08136463,-2.35101652,2.88251948]]],"cost":0.5000003,"learningRate":0.01,"name":"PlSL2","hideFlags":0}