{"config":{"identifier":"PlSL2","inputSize":5,"outputSize":2,"hiddenLayerSize":[10],"learningRate":0.01},"layers":[5,10,2],"neurons":[[0.682473838,0.573354,0.0,0.791942358,0.8692283],[1.0,-0.99999994,0.99849695,-0.92661196,1.0,-0.99999994,-0.999998868,-0.999999344,0.9578238,-1.0],[0.2587561,1.0]],"biases":[[11.5732012,-9.546255,-2.183168,11.88832,81.93099,4.08542871,37.7255936,17.837574,5.72553349,-36.31513],[-3.23368168,17.4063683]],"weights":[[[-19.9855061,3.54358816,-8.580784,18.64136,-3.092552],[-11.2255049,22.4614,19.7337513,22.109375,-25.4227428],[18.0112247,7.4134655,9.062479,12.832509,-24.0740566],[-8.150194,-6.352872,1.48493135,-7.20348072,1.59599221],[-49.4514542,-1.716965,-36.7987137,2.71202755,-40.28648],[-32.7599945,33.40771,16.2890987,1.730355,-12.7751245],[19.351614,-13.0734692,-16.3323841,-21.4399033,-38.71943],[-31.99695,16.436,2.033057,-6.75908756,-8.65522],[1.79244542,-3.08442974,-2.82578778,8.570528,-11.5606661],[13.0659771,12.2551126,28.7839432,-48.5316544,50.725956]],[[16.408535,-4.10299349,-16.5578671,5.52575827,-2.234852,4.583146,0.00852958,-4.595204,5.19919825,-1.89155257],[-1.32491648,-10.3744926,-9.629755,-8.062679,7.45395374,-0.231802344,0.826723456,0.143356368,5.98086071,3.30765963]]],"cost":0.5005293,"learningRate":0.01,"name":"PlSL2","hideFlags":0}