{
  "config": {
    "identifier": "SupervisedLearning",
    "inputSize": 3,
    "outputSize": 2,
    "hiddenLayerSize": [ 10 ],
    "learningRate": 0.01
  },
  "layers": [ 3, 10, 2 ],
  "neurons": [
    [ 0.5263228, 0.0, 0.529922 ],
    [ -0.308283418, 0.345524937, 0.05611263, -0.9105659, -0.5431543, 0.180776358, -0.205151588, -0.281709075, -0.009383865, -0.401446462 ],
    [ 0.06763018, 0.984566 ]
  ],
  "biases": [
    [ -0.5982526, 0.115719408, 0.05331955, -0.464010835, -1.14681661, 0.271272659, -0.09610881, -0.2666181, -0.142560318, -0.2483212 ],
    [ -0.166869268, 0.816942453 ]
  ],
  "weights": [
    [
      [ -0.983243167, 1.334523, 1.5041995 ],
      [ -1.17525542, 0.591390669, 1.62891388 ],
      [ -0.402161181, -0.284698218, 0.4048118 ],
      [ -0.948048949, 0.732815, -1.07154608 ],
      [ 0.5570531, 0.176298633, 0.462346822 ],
      [ -0.480561, 0.232066542, 0.3103149 ],
      [ -0.8168437, -0.167468637, 0.599951744 ],
      [ 0.07689236, -0.162633792, -0.119620681 ],
      [ 1.025633, 0.8838729, -0.7673541 ],
      [ -1.51697779, -0.617882, 1.172567 ]
    ],
    [
      [ 0.530893, 1.25351453, 0.550353944, -0.1920062, -0.163509816, 0.792729855, 0.858686745, -0.0895687342, -0.7720114, 0.8195414 ],
      [ -1.95974469, -1.37037086, 0.41119504, -1.64249742, -1.1790452, -0.101760238, 0.5752614, -0.235269129, -1.2656616, 1.54474807 ]
    ]
  ],
  "cost": 1.12378912E-05,
  "learningRate": 0.01,
  "name": "SimpleSupervisedLearning",
  "hideFlags": 0
}