{"config":{"identifier":"SupervisedLearning","inputSize":3,"outputSize":2,"hiddenLayerSize":[10],"learningRate":0.01},"layers":[3,10,2],"neurons":[[0.0,0.0,0.0],[-0.162925363,0.0345967747,-0.5843034,0.0671196058,-0.130328566,-0.4234311,0.5563146,-0.572024465,0.421608269,-0.06792242],[-9.536743E-07,0.9982328]],"biases":[[-0.16439037,0.0346105881,-0.6689722,0.06722067,-0.131074086,-0.451865315,0.62748003,-0.650526762,0.449646354,-0.06802716],[0.295465946,0.5715457]],"weights":[[[0.6096254,-0.09437596,-0.6356327],[1.10780823,-0.715247452,-1.63428211],[0.145678788,0.268805861,0.338163316],[0.361966223,0.209149212,-0.996273935],[2.34085751,0.9920823,-1.691435],[-1.28910661,0.7242404,-1.16267514],[0.0395292751,0.219423831,-0.127168044],[-0.2108809,1.18611026,0.561615467],[0.3719409,-0.7818401,-0.369182438],[-0.08275541,0.4117111,0.196481511]],[[-0.76297766,-1.1893307,0.178191155,-1.0893259,-1.64601648,0.5975296,-0.04483706,-0.008747421,-0.291014671,0.298455983],[0.265417218,1.63553035,-0.830886,0.3449493,-2.69390154,-1.5931617,0.3579145,-1.49327207,0.764567852,-0.300965369]]],"cost":6.730216E-06,"learningRate":0.01,"name":"SupervisedLearning","hideFlags":0}