{"config":{"identifier":"CarNN","inputSize":3,"outputSize":2,"hiddenLayerSize":[5,5],"learningRate":0.01},"layers":[3,5,5,2],"neurons":[[0.6305204,0.124851033,0.5831975],[-0.213795573,0.3930996,0.23734127,-0.1856556,0.5466743],[-0.6107442,-0.244311661,0.06448481,0.6030607,-0.207895145],[-0.235612214,0.7753284]],"biases":[[0.0470097624,0.5405164,-0.0145672765,-0.0877107,0.161161467],[-0.09807347,-0.433767825,0.223014787,0.3549567,-0.515249848],[0.0849066451,1.11644793]],"weights":[[[0.5552891,0.02231765,-1.058068],[0.279801816,-1.22706282,-0.25424692],[1.07438624,0.284889728,-0.7827009],[-1.11015511,0.1436609,0.997802734],[0.3470661,0.8808386,0.212035269]],[[-0.628082,0.04252002,-0.927837431,0.8949385,-0.689012051],[1.120367,0.766282737,1.02443755,-1.21241987,-0.632033169],[-0.2521896,0.8488258,-0.336443245,0.66977,-0.6252938],[-0.310377717,0.934486151,-0.379539847,0.08656389,0.0282338932],[-0.28611052,-0.308340818,0.4319517,-0.126762792,0.435844034]],[[1.35763371,-1.30276132,0.103752933,0.268319547,-0.083473064],[0.9109801,1.91815281,1.06792712,1.20062208,-0.7176334]]],"cost":6.295336E-05,"learningRate":0.01,"name":"SimpleSupervisedLearning","hideFlags":0}